svm_type c_svc
kernel_type linear
nr_class 2
total_sv 815
rho 1.0003515983009099
label 1 0
probA -1.3043744672754367
probB 0.17254901341604978
nr_sv 383 432
SV
1.103425976904981 1:1 8:1 9:1 10:1 14:1 20:1 25:1 26:1 
2.3106302322349377 1:1 4:1 6:1 8:1 12:1 16:1 19:1 22:1 25:1 26:1 
4 1:1 4:1 7:1 8:1 12:1 13:1 14:1 19:1 22:1 23:1 26:1 
0.30506900154801986 1:1 12:1 14:1 16:1 19:1 20:1 24:1 26:1 
1.3661420083782845 1:1 16:1 18:1 20:1 22:1 24:1 25:1 26:1 
1.8813747134525851 1:1 14:1 15:1 16:1 22:1 23:1 25:1 26:1 
0.39215709999968762 1:1 5:1 6:1 7:1 8:1 9:1 10:1 12:1 14:1 15:1 16:1 17:1 18:1 19:1 23:1 
0.71198785861199587 1:1 8:1 9:1 10:1 11:1 12:1 13:1 14:1 15:1 16:1 22:1 23:1 
0.53680548189014998 1:1 6:1 8:1 9:1 10:1 13:1 14:1 15:1 16:1 17:1 18:1 19:1 20:1 21:1 22:1 24:1 25:1 
0.86452819999776942 1:1 6:1 7:1 8:1 9:1 10:1 12:1 14:1 15:1 16:1 17:1 18:1 19:1 20:1 21:1 22:1 23:1 24:1 25:1 26:1 
4 8:1 9:1 13:1 14:1 15:1 16:1 17:1 18:1 19:1 20:1 21:1 
4 1:1 8:1 11:1 12:1 14:1 15:1 16:1 17:1 18:1 21:1 22:1 23:1 
0.6380331838185509 1:1 8:1 10:1 11:1 12:1 14:1 15:1 16:1 17:1 18:1 21:1 
4 1:1 8:1 11:1 12:1 14:1 15:1 16:1 17:1 18:1 21:1 22:1 23:1 
1.0572835195090662 1:1 11:1 12:1 14:1 15:1 16:1 17:1 18:1 19:1 20:1 22:1 23:1 25:1 26:1 
0.9762612660462735 1:1 8:1 9:1 14:1 16:1 22:1 23:1 25:1 
4 8:1 9:1 10:1 14:1 15:1 16:1 17:1 18:1 19:1 20:1 21:1 22:1 24:1 25:1 26:1 
0.37480551088112052 1:1 6:1 12:1 13:1 14:1 16:1 18:1 19:1 22:1 23:1 26:1 
0.57407111475006745 1:1 6:1 12:1 16:1 21:1 22:1 25:1 
4 6:1 7:1 8:1 9:1 10:1 12:1 13:1 16:1 19:1 22:1 25:1 26:1 
4 5:1 6:1 11:1 12:1 13:1 16:1 19:1 22:1 23:1 
4 5:1 6:1 11:1 12:1 13:1 19:1 22:1 23:1 
4 1:1 4:1 6:1 7:1 22:1 23:1 24:1 25:1 26:1 
4 1:1 8:1 9:1 10:1 16:1 20:1 21:1 22:1 23:1 24:1 26:1 
3.3452026153809715 1:1 3:1 4:1 5:1 10:1 14:1 15:1 16:1 24:1 26:1 
4 1:1 4:1 6:1 7:1 8:1 9:1 11:1 12:1 13:1 14:1 16:1 17:1 18:1 21:1 
0.61556579778840637 1:1 4:1 10:1 14:1 16:1 20:1 22:1 24:1 25:1 
0.25909336582587106 1:1 4:1 10:1 11:1 12:1 13:1 14:1 16:1 18:1 20:1 24:1 25:1 26:1 
3.6796856048931952 1:1 4:1 14:1 16:1 20:1 21:1 22:1 25:1 
4 4:1 7:1 9:1 10:1 12:1 13:1 14:1 19:1 20:1 21:1 22:1 24:1 25:1 
0.00037694060194197574 1:1 4:1 6:1 8:1 10:1 12:1 13:1 14:1 15:1 22:1 24:1 25:1 26:1 
4 4:1 6:1 8:1 12:1 14:1 16:1 22:1 23:1 24:1 25:1 26:1 
4 18:1 19:1 20:1 21:1 22:1 24:1 25:1 26:1 
4 18:1 19:1 20:1 21:1 22:1 24:1 25:1 26:1 
4 18:1 19:1 20:1 21:1 22:1 24:1 25:1 26:1 
1.7820829862605774 1:1 12:1 15:1 16:1 19:1 20:1 25:1 26:1 
1.0851216110632762 1:1 10:1 14:1 15:1 16:1 19:1 22:1 26:1 
4 20:1 21:1 24:1 
3.0295824065189505 1:1 4:1 6:1 11:1 12:1 15:1 16:1 18:1 20:1 22:1 24:1 25:1 
4 1:1 4:1 6:1 24:1 25:1 
1.3853770460036086 1:1 6:1 10:1 15:1 24:1 25:1 26:1 
4 7:1 12:1 13:1 15:1 20:1 24:1 
4 2:1 24:1 25:1 
4 6:1 7:1 8:1 10:1 11:1 14:1 19:1 20:1 23:1 25:1 
0.41793816404783246 1:1 8:1 9:1 14:1 16:1 21:1 22:1 23:1 24:1 25:1 
2.2083450399048061 1:1 6:1 8:1 9:1 10:1 16:1 17:1 18:1 24:1 25:1 
0.70910508192158406 1:1 6:1 7:1 8:1 14:1 23:1 25:1 
4 8:1 10:1 14:1 16:1 23:1 24:1 25:1 26:1 
0.42599870097695153 1:1 8:1 9:1 12:1 14:1 16:1 25:1 
4 1:1 2:1 6:1 7:1 8:1 9:1 12:1 16:1 25:1 26:1 
0.64984440368157248 1:1 8:1 9:1 12:1 16:1 20:1 25:1 26:1 
4 4:1 6:1 9:1 12:1 16:1 24:1 25:1 
4 8:1 10:1 12:1 15:1 16:1 18:1 19:1 
4 6:1 8:1 9:1 10:1 11:1 12:1 15:1 16:1 18:1 19:1 22:1 23:1 
2.4871319476697979 1:1 6:1 9:1 10:1 14:1 15:1 16:1 17:1 18:1 21:1 22:1 24:1 25:1 
0.96116624044680776 1:1 6:1 9:1 10:1 14:1 15:1 16:1 18:1 19:1 21:1 22:1 24:1 25:1 
1.1718630650626931 1:1 6:1 9:1 10:1 11:1 12:1 15:1 16:1 20:1 21:1 22:1 24:1 
4 8:1 9:1 10:1 11:1 15:1 16:1 18:1 19:1 25:1 26:1 
1.8686311695521514 1:1 6:1 9:1 10:1 11:1 12:1 15:1 16:1 17:1 18:1 22:1 23:1 24:1 25:1 
4 9:1 10:1 11:1 15:1 16:1 19:1 20:1 23:1 
4 6:1 9:1 10:1 11:1 15:1 16:1 18:1 19:1 20:1 21:1 25:1 
4 8:1 9:1 10:1 11:1 15:1 16:1 17:1 18:1 20:1 24:1 
4 7:1 8:1 10:1 11:1 13:1 14:1 16:1 17:1 19:1 20:1 24:1 25:1 
0.69467128493338781 1:1 6:1 7:1 8:1 11:1 16:1 17:1 20:1 22:1 24:1 26:1 
4 7:1 8:1 11:1 19:1 20:1 21:1 22:1 24:1 26:1 
4 7:1 8:1 11:1 18:1 19:1 20:1 21:1 22:1 23:1 
4 7:1 8:1 11:1 17:1 18:1 19:1 20:1 22:1 23:1 
4 7:1 8:1 17:1 18:1 19:1 23:1 
4 1:1 4:1 14:1 17:1 20:1 21:1 22:1 24:1 
4 1:1 9:1 17:1 18:1 20:1 21:1 23:1 25:1 
4 1:1 9:1 10:1 12:1 19:1 20:1 23:1 
4 4:1 12:1 16:1 19:1 23:1 25:1 
1.8117914451175405 1:1 14:1 20:1 21:1 22:1 23:1 25:1 
4 1:1 12:1 23:1 24:1 25:1 
4 9:1 22:1 23:1 
0.45719338105697516 1:1 5:1 6:1 10:1 11:1 12:1 16:1 20:1 21:1 26:1 
0.64413997658272193 1:1 4:1 5:1 6:1 10:1 11:1 12:1 16:1 20:1 21:1 26:1 
2.5863659558933878 1:1 5:1 6:1 7:1 12:1 17:1 20:1 21:1 26:1 
4 5:1 6:1 7:1 12:1 17:1 20:1 21:1 26:1 
2.0133998515989386 1:1 6:1 7:1 8:1 9:1 10:1 13:1 14:1 18:1 26:1 
4 1:1 6:1 7:1 9:1 10:1 16:1 17:1 18:1 23:1 25:1 26:1 
0.39906130784900024 1:1 6:1 7:1 9:1 16:1 18:1 25:1 26:1 
1.1879055161105729 1:1 7:1 8:1 9:1 16:1 23:1 25:1 
1.3737038008901974 1:1 7:1 8:1 9:1 16:1 21:1 25:1 26:1 
4 5:1 6:1 7:1 12:1 13:1 22:1 24:1 25:1 
0.29277511171625759 1:1 6:1 8:1 14:1 15:1 16:1 21:1 22:1 24:1 25:1 
1.335318751801027 1:1 4:1 7:1 8:1 10:1 12:1 14:1 20:1 22:1 23:1 25:1 26:1 
4 1:1 4:1 6:1 10:1 12:1 15:1 16:1 21:1 22:1 26:1 
0.59694395201081363 1:1 4:1 6:1 8:1 12:1 14:1 16:1 22:1 23:1 25:1 
1.0251215166620247 1:1 4:1 6:1 7:1 8:1 10:1 16:1 19:1 20:1 22:1 23:1 25:1 
0.50460991708903113 1:1 6:1 8:1 10:1 14:1 15:1 16:1 20:1 22:1 23:1 24:1 25:1 26:1 
1.0679184400652091 1:1 6:1 8:1 10:1 12:1 16:1 22:1 24:1 25:1 26:1 
3.240969318159181 1:1 4:1 6:1 8:1 12:1 16:1 24:1 25:1 26:1 
0.2014836056119429 1:1 4:1 5:1 6:1 7:1 8:1 10:1 12:1 16:1 20:1 23:1 25:1 
0.65777779396170888 1:1 4:1 5:1 6:1 7:1 8:1 14:1 23:1 25:1 
1.4078249495876798 1:1 4:1 6:1 8:1 11:1 12:1 16:1 19:1 20:1 22:1 23:1 25:1 26:1 
0.81610052197066985 1:1 4:1 6:1 8:1 10:1 14:1 20:1 24:1 25:1 
4 4:1 5:1 6:1 7:1 8:1 10:1 11:1 12:1 15:1 16:1 18:1 19:1 25:1 26:1 
0.95313474703966428 1:1 6:1 8:1 10:1 11:1 12:1 18:1 20:1 22:1 24:1 25:1 
4 1:1 3:1 4:1 18:1 20:1 21:1 25:1 26:1 
4 4:1 5:1 6:1 7:1 10:1 11:1 12:1 15:1 16:1 20:1 21:1 26:1 
4 6:1 7:1 8:1 14:1 16:1 24:1 25:1 26:1 
4 7:1 8:1 9:1 14:1 16:1 22:1 24:1 25:1 26:1 
4 6:1 7:1 8:1 12:1 14:1 22:1 25:1 26:1 
4 5:1 6:1 7:1 8:1 10:1 15:1 16:1 20:1 21:1 22:1 25:1 26:1 
4 1:1 7:1 12:1 18:1 22:1 24:1 
2.4500765944024367 1:1 6:1 13:1 14:1 17:1 18:1 19:1 20:1 24:1 25:1 26:1 
4 17:1 18:1 19:1 20:1 22:1 26:1 
4 1:1 4:1 16:1 22:1 23:1 25:1 
0.57900586873726723 1:1 6:1 8:1 14:1 15:1 16:1 20:1 22:1 23:1 25:1 26:1 
4 20:1 24:1 25:1 26:1 
4 7:1 8:1 12:1 14:1 20:1 21:1 24:1 25:1 26:1 
4 18:1 22:1 24:1 25:1 26:1 
4 1:1 8:1 24:1 25:1 26:1 
4 1:1 3:1 4:1 6:1 12:1 20:1 21:1 22:1 24:1 25:1 26:1 
4 4:1 5:1 6:1 7:1 8:1 14:1 24:1 25:1 26:1 
4 6:1 10:1 16:1 18:1 20:1 24:1 25:1 26:1 
4 24:1 25:1 26:1 
4 8:1 10:1 16:1 17:1 18:1 
4 8:1 12:1 18:1 19:1 20:1 24:1 25:1 26:1 
4 1:1 14:1 18:1 19:1 20:1 21:1 22:1 23:1 
4 1:1 6:1 16:1 19:1 20:1 23:1 26:1 
4 1:1 4:1 12:1 13:1 16:1 20:1 22:1 23:1 25:1 
2.4536560477706377 1:1 6:1 7:1 11:1 16:1 17:1 21:1 24:1 25:1 
4 1:1 4:1 11:1 13:1 16:1 20:1 22:1 23:1 24:1 25:1 26:1 
4 1:1 13:1 14:1 16:1 20:1 21:1 22:1 23:1 
3.4846709831987366 1:1 14:1 22:1 23:1 25:1 
4 1:1 6:1 12:1 15:1 19:1 22:1 23:1 
4 3:1 6:1 12:1 15:1 20:1 23:1 25:1 
4 3:1 6:1 7:1 8:1 13:1 16:1 17:1 20:1 22:1 24:1 25:1 
0.23929814750436601 1:1 10:1 14:1 20:1 21:1 22:1 25:1 26:1 
0.79026756053074509 1:1 6:1 10:1 11:1 12:1 13:1 14:1 20:1 21:1 22:1 24:1 
1.8305357461129235 1:1 8:1 10:1 11:1 12:1 14:1 26:1 
0.44091514667977244 1:1 4:1 10:1 11:1 12:1 13:1 19:1 20:1 22:1 23:1 24:1 25:1 
4 1:1 10:1 12:1 20:1 23:1 26:1 
4 1:1 14:1 20:1 21:1 23:1 25:1 26:1 
4 1:1 4:1 10:1 11:1 12:1 13:1 14:1 20:1 21:1 22:1 23:1 26:1 
3.7522636866112196 1:1 4:1 6:1 8:1 10:1 12:1 13:1 14:1 15:1 16:1 18:1 20:1 21:1 22:1 23:1 25:1 
4 4:1 8:1 12:1 13:1 14:1 15:1 16:1 17:1 19:1 21:1 22:1 24:1 
0.11256215432359706 1:1 6:1 10:1 14:1 15:1 21:1 22:1 24:1 25:1 
1.243725199606966 1:1 5:1 6:1 17:1 19:1 20:1 22:1 23:1 25:1 26:1 
2.0454174712259485 1:1 5:1 6:1 10:1 13:1 19:1 20:1 23:1 25:1 26:1 
0.97200982612741205 1:1 6:1 10:1 11:1 12:1 13:1 18:1 19:1 23:1 25:1 
0.57629444797043017 1:1 10:1 11:1 14:1 15:1 16:1 17:1 18:1 19:1 25:1 
1.1703253855731806 1:1 4:1 6:1 8:1 10:1 12:1 14:1 16:1 18:1 20:1 22:1 
4 1:1 4:1 6:1 8:1 10:1 12:1 14:1 16:1 18:1 20:1 22:1 23:1 
4 1:1 4:1 8:1 10:1 12:1 13:1 14:1 16:1 18:1 20:1 22:1 23:1 
0.5493910929475545 1:1 6:1 7:1 10:1 11:1 12:1 14:1 15:1 16:1 20:1 21:1 
4 1:1 10:1 12:1 16:1 22:1 
4 8:1 9:1 12:1 14:1 16:1 17:1 25:1 26:1 
4 1:1 8:1 9:1 10:1 15:1 16:1 17:1 22:1 25:1 26:1 
1.6922770659477617 1:1 10:1 14:1 16:1 17:1 24:1 
1.0241342634943122 1:1 14:1 15:1 16:1 21:1 24:1 25:1 26:1 
4 1:1 6:1 25:1 26:1 
4 1:1 18:1 19:1 
2.9276286269046241 1:1 10:1 16:1 18:1 19:1 24:1 
4 1:1 10:1 24:1 
0.22038085657548054 1:1 7:1 8:1 9:1 11:1 12:1 14:1 17:1 18:1 20:1 24:1 25:1 26:1 
2.1164712844279263 1:1 4:1 6:1 7:1 8:1 9:1 12:1 13:1 14:1 15:1 16:1 17:1 18:1 19:1 20:1 24:1 
1.3400365482193066 1:1 6:1 8:1 9:1 10:1 11:1 12:1 13:1 14:1 15:1 16:1 17:1 18:1 20:1 21:1 22:1 23:1 25:1 26:1 
4 4:1 6:1 7:1 8:1 9:1 10:1 11:1 12:1 13:1 14:1 24:1 25:1 
4 6:1 8:1 10:1 12:1 14:1 16:1 18:1 24:1 25:1 
4 4:1 5:1 6:1 8:1 9:1 10:1 12:1 24:1 25:1 26:1 
4 5:1 8:1 9:1 10:1 11:1 12:1 13:1 14:1 17:1 18:1 19:1 20:1 24:1 25:1 26:1 
4 5:1 8:1 9:1 10:1 13:1 14:1 15:1 21:1 22:1 24:1 25:1 26:1 
4 2:1 5:1 17:1 18:1 20:1 21:1 24:1 25:1 26:1 
4 2:1 15:1 17:1 18:1 20:1 24:1 25:1 26:1 
4 4:1 5:1 18:1 20:1 24:1 25:1 26:1 
4 2:1 10:1 14:1 19:1 20:1 24:1 25:1 26:1 
4 2:1 9:1 10:1 14:1 18:1 20:1 24:1 25:1 26:1 
4 2:1 3:1 4:1 5:1 12:1 14:1 17:1 22:1 24:1 25:1 26:1 
4 2:1 11:1 18:1 20:1 24:1 25:1 26:1 
4 2:1 11:1 18:1 20:1 24:1 25:1 26:1 
4 2:1 11:1 14:1 18:1 20:1 24:1 25:1 26:1 
4 2:1 11:1 14:1 18:1 20:1 24:1 25:1 26:1 
4 4:1 14:1 21:1 23:1 25:1 26:1 
4 4:1 14:1 21:1 22:1 23:1 25:1 26:1 
4 4:1 14:1 21:1 22:1 23:1 25:1 26:1 
4 14:1 25:1 
4 4:1 14:1 17:1 20:1 24:1 25:1 
4 2:1 4:1 10:1 14:1 17:1 18:1 19:1 21:1 24:1 25:1 26:1 
4 4:1 14:1 17:1 20:1 24:1 25:1 26:1 
4 2:1 8:1 10:1 14:1 17:1 18:1 24:1 25:1 26:1 
4 8:1 10:1 14:1 18:1 21:1 24:1 25:1 26:1 
4 3:1 10:1 15:1 18:1 19:1 20:1 24:1 25:1 26:1 
4 5:1 8:1 10:1 14:1 15:1 18:1 21:1 24:1 25:1 26:1 
4 3:1 4:1 8:1 12:1 14:1 22:1 24:1 25:1 26:1 
4 10:1 12:1 18:1 19:1 25:1 26:1 
4 3:1 4:1 6:1 8:1 14:1 16:1 24:1 25:1 
4 3:1 9:1 12:1 14:1 18:1 21:1 24:1 25:1 26:1 
4 3:1 9:1 12:1 14:1 18:1 21:1 24:1 25:1 26:1 
4 3:1 9:1 12:1 14:1 18:1 21:1 24:1 25:1 26:1 
4 3:1 9:1 12:1 14:1 18:1 21:1 24:1 25:1 26:1 
0.13423125709368369 1:1 14:1 16:1 20:1 24:1 25:1 
0.50143215203713976 1:1 6:1 7:1 8:1 9:1 10:1 11:1 12:1 14:1 15:1 20:1 21:1 22:1 25:1 26:1 
0.70629140008220448 1:1 6:1 7:1 12:1 14:1 15:1 18:1 20:1 22:1 24:1 25:1 26:1 
4 1:1 6:1 14:1 20:1 21:1 
4 1:1 16:1 25:1 26:1 
1.4848378316810629 1:1 10:1 16:1 20:1 22:1 24:1 25:1 26:1 
2.3896470199854578 1:1 14:1 18:1 20:1 21:1 22:1 24:1 25:1 26:1 
4 4:1 8:1 9:1 10:1 12:1 14:1 17:1 18:1 20:1 21:1 22:1 23:1 26:1 
0.07742392299783582 1:1 4:1 5:1 6:1 7:1 8:1 9:1 12:1 13:1 14:1 18:1 20:1 24:1 25:1 26:1 
4 6:1 7:1 8:1 9:1 10:1 14:1 15:1 16:1 17:1 22:1 23:1 24:1 25:1 26:1 
1.7890634788351127 1:1 10:1 14:1 15:1 16:1 18:1 22:1 23:1 24:1 25:1 26:1 
0.54508195093702694 1:1 5:1 6:1 12:1 13:1 16:1 18:1 20:1 21:1 23:1 25:1 
4 10:1 14:1 16:1 17:1 18:1 20:1 24:1 25:1 
4 8:1 9:1 10:1 11:1 14:1 16:1 17:1 18:1 19:1 20:1 25:1 
1.4847468636986234 1:1 8:1 10:1 16:1 17:1 18:1 19:1 20:1 24:1 25:1 26:1 
4 1:1 12:1 16:1 17:1 24:1 25:1 26:1 
0.60662597712599808 1:1 5:1 6:1 10:1 13:1 14:1 18:1 22:1 23:1 24:1 
4 10:1 14:1 15:1 16:1 17:1 20:1 21:1 22:1 23:1 24:1 25:1 26:1 
4 10:1 12:1 14:1 15:1 16:1 17:1 20:1 21:1 22:1 23:1 24:1 25:1 26:1 
4 14:1 15:1 16:1 17:1 20:1 21:1 22:1 23:1 24:1 25:1 26:1 
4 14:1 15:1 16:1 17:1 20:1 21:1 22:1 23:1 24:1 25:1 26:1 
4 11:1 14:1 15:1 16:1 18:1 22:1 24:1 25:1 26:1 
4 6:1 8:1 10:1 11:1 14:1 18:1 19:1 20:1 21:1 22:1 24:1 25:1 26:1 
4 2:1 6:1 7:1 9:1 11:1 12:1 18:1 20:1 21:1 
4 2:1 6:1 7:1 8:1 9:1 11:1 12:1 13:1 17:1 18:1 21:1 25:1 26:1 
0.014240798402349486 1:1 4:1 6:1 8:1 9:1 12:1 14:1 15:1 16:1 22:1 23:1 24:1 25:1 26:1 
4 4:1 6:1 7:1 9:1 10:1 14:1 15:1 17:1 23:1 25:1 26:1 
4 1:1 9:1 15:1 16:1 19:1 21:1 22:1 25:1 26:1 
1.5880728972923925 1:1 10:1 12:1 16:1 18:1 22:1 24:1 25:1 26:1 
1.6421480971390079 1:1 7:1 8:1 10:1 12:1 16:1 17:1 18:1 25:1 26:1 
0.81519980211394794 1:1 8:1 9:1 10:1 12:1 14:1 16:1 18:1 20:1 25:1 26:1 
0.56467215142192584 1:1 6:1 7:1 8:1 11:1 12:1 15:1 16:1 17:1 18:1 25:1 26:1 
4 5:1 6:1 8:1 9:1 10:1 11:1 12:1 15:1 16:1 18:1 19:1 20:1 24:1 25:1 
4 5:1 6:1 8:1 9:1 10:1 11:1 12:1 15:1 16:1 18:1 19:1 20:1 24:1 25:1 
0.52786208280229618 1:1 7:1 8:1 10:1 12:1 13:1 14:1 15:1 16:1 22:1 23:1 26:1 
0.47649057732428401 1:1 7:1 8:1 10:1 13:1 14:1 15:1 16:1 17:1 22:1 23:1 25:1 26:1 
0.98975012086209646 1:1 4:1 8:1 10:1 11:1 12:1 14:1 16:1 18:1 20:1 22:1 24:1 25:1 26:1 
0.61017797354304537 1:1 3:1 8:1 10:1 12:1 14:1 16:1 18:1 24:1 25:1 26:1 
0.49708737732594621 1:1 8:1 10:1 12:1 13:1 14:1 15:1 16:1 18:1 20:1 23:1 24:1 26:1 
0.28682931285805513 1:1 3:1 7:1 10:1 14:1 16:1 17:1 20:1 22:1 24:1 25:1 
4 1:1 3:1 4:1 7:1 10:1 12:1 13:1 14:1 16:1 17:1 20:1 22:1 24:1 26:1 
4 4:1 5:1 6:1 7:1 8:1 10:1 11:1 12:1 14:1 16:1 17:1 18:1 20:1 23:1 24:1 26:1 
4 4:1 5:1 6:1 8:1 10:1 12:1 13:1 14:1 16:1 18:1 20:1 21:1 24:1 25:1 
4 4:1 8:1 12:1 15:1 18:1 24:1 25:1 
4 4:1 6:1 11:1 12:1 16:1 17:1 20:1 22:1 25:1 26:1 
4 3:1 7:1 10:1 11:1 12:1 14:1 17:1 18:1 20:1 22:1 25:1 26:1 
1.0547838021388856 1:1 3:1 4:1 5:1 6:1 7:1 8:1 10:1 11:1 12:1 17:1 18:1 22:1 23:1 24:1 25:1 
4 3:1 5:1 6:1 7:1 10:1 14:1 19:1 20:1 26:1 
4 5:1 6:1 7:1 12:1 14:1 17:1 18:1 19:1 20:1 23:1 25:1 26:1 
0.45355141792775389 1:1 4:1 5:1 6:1 7:1 10:1 11:1 18:1 19:1 20:1 22:1 25:1 26:1 
0.077432496755874852 1:1 5:1 6:1 7:1 10:1 12:1 18:1 19:1 20:1 23:1 25:1 26:1 
4 5:1 6:1 7:1 10:1 11:1 12:1 17:1 18:1 20:1 23:1 25:1 26:1 
4 5:1 6:1 7:1 14:1 19:1 20:1 26:1 
4 3:1 4:1 5:1 6:1 7:1 19:1 20:1 21:1 24:1 25:1 
4 3:1 5:1 6:1 7:1 10:1 12:1 18:1 20:1 22:1 24:1 
4 4:1 5:1 6:1 7:1 12:1 18:1 23:1 25:1 26:1 
4 1:1 10:1 15:1 16:1 20:1 21:1 24:1 
0.74145368868832751 1:1 6:1 10:1 11:1 15:1 16:1 20:1 21:1 22:1 24:1 
1.8747231111524738 1:1 6:1 10:1 15:1 16:1 20:1 21:1 22:1 24:1 
0.96729584432090132 1:1 10:1 12:1 16:1 20:1 21:1 24:1 25:1 
0.41243560933448864 1:1 6:1 10:1 14:1 20:1 21:1 22:1 24:1 25:1 
3.5261737538840738 1:1 8:1 12:1 14:1 19:1 20:1 21:1 
4 1:1 6:1 8:1 18:1 19:1 20:1 
4 4:1 6:1 7:1 8:1 9:1 13:1 14:1 18:1 22:1 24:1 25:1 26:1 
4 1:1 7:1 12:1 13:1 18:1 19:1 22:1 23:1 24:1 25:1 26:1 
4 4:1 8:1 11:1 14:1 18:1 25:1 
0.89465854939693124 1:1 6:1 7:1 10:1 11:1 12:1 20:1 22:1 23:1 25:1 26:1 
2.2222061690857569 1:1 6:1 7:1 8:1 10:1 11:1 12:1 21:1 22:1 23:1 
2.7144641367272229 1:1 6:1 7:1 10:1 11:1 12:1 17:1 18:1 19:1 
0.5324769526869737 1:1 6:1 7:1 10:1 11:1 12:1 18:1 19:1 20:1 25:1 26:1 
1.4934368075340763 1:1 4:1 7:1 8:1 9:1 10:1 11:1 12:1 14:1 18:1 19:1 21:1 22:1 24:1 
1.474817710869468 1:1 14:1 15:1 16:1 21:1 22:1 23:1 24:1 25:1 26:1 
3.2419301597148746 1:1 4:1 8:1 9:1 13:1 14:1 15:1 16:1 21:1 22:1 23:1 24:1 25:1 
0.45105779080431085 1:1 8:1 12:1 16:1 18:1 20:1 24:1 25:1 26:1 
2.1233521001851914 1:1 8:1 9:1 10:1 12:1 18:1 20:1 21:1 22:1 24:1 25:1 26:1 
0.055698128850976344 1:1 6:1 8:1 9:1 10:1 11:1 12:1 14:1 16:1 18:1 25:1 26:1 
0.69682628929652146 1:1 6:1 8:1 10:1 12:1 14:1 18:1 19:1 20:1 22:1 23:1 25:1 26:1 
0.0025082040418801547 1:1 6:1 8:1 9:1 11:1 12:1 13:1 14:1 16:1 18:1 19:1 20:1 23:1 26:1 
0.27204128040177072 1:1 6:1 8:1 10:1 11:1 12:1 20:1 24:1 25:1 
2.9825025113696895 1:1 6:1 7:1 8:1 12:1 21:1 22:1 24:1 25:1 26:1 
2.0769381839495762 1:1 4:1 8:1 14:1 20:1 21:1 22:1 24:1 25:1 26:1 
4 6:1 7:1 8:1 9:1 10:1 15:1 16:1 25:1 26:1 
4 1:1 4:1 8:1 9:1 14:1 22:1 24:1 25:1 26:1 
0.51067221701566567 1:1 6:1 8:1 9:1 14:1 15:1 16:1 20:1 21:1 24:1 
0.81274246384772841 1:1 8:1 14:1 15:1 20:1 21:1 22:1 24:1 25:1 26:1 
4 1:1 8:1 17:1 18:1 20:1 22:1 24:1 25:1 26:1 
4 1:1 8:1 15:1 22:1 23:1 24:1 25:1 26:1 
1.8329480172294879 1:1 6:1 8:1 19:1 22:1 24:1 25:1 26:1 
0.21162650554048734 1:1 5:1 6:1 8:1 15:1 16:1 22:1 23:1 24:1 25:1 26:1 
0.9160778044689678 1:1 5:1 6:1 8:1 14:1 15:1 20:1 21:1 22:1 26:1 
3.6350323680639782 1:1 7:1 13:1 14:1 21:1 22:1 23:1 25:1 26:1 
3.6452525687096848 1:1 7:1 8:1 9:1 10:1 16:1 17:1 19:1 23:1 24:1 
3.736261231572378 1:1 5:1 6:1 17:1 18:1 22:1 23:1 24:1 25:1 26:1 
1.0050989656454714 1:1 10:1 12:1 14:1 18:1 20:1 22:1 24:1 25:1 
0.44295540532006927 1:1 6:1 10:1 14:1 16:1 22:1 
4 8:1 9:1 10:1 11:1 12:1 14:1 22:1 23:1 
0.74910628218094133 1:1 9:1 10:1 14:1 24:1 25:1 
0.74767005311236745 1:1 8:1 12:1 20:1 21:1 22:1 24:1 25:1 26:1 
4 1:1 10:1 21:1 22:1 25:1 
4 1:1 6:1 8:1 17:1 18:1 22:1 23:1 25:1 26:1 
2.9767223243087373 1:1 20:1 24:1 25:1 26:1 
4 1:1 9:1 16:1 18:1 20:1 22:1 25:1 
4 4:1 6:1 8:1 14:1 15:1 16:1 18:1 20:1 21:1 22:1 24:1 25:1 26:1 
1.1968562167394063 1:1 14:1 19:1 20:1 22:1 25:1 26:1 
3.5707517102123552 1:1 6:1 14:1 19:1 20:1 23:1 
0.61953311192680094 1:1 12:1 13:1 14:1 19:1 20:1 24:1 25:1 26:1 
4 12:1 13:1 14:1 19:1 20:1 22:1 26:1 
0.93595272413781916 1:1 6:1 8:1 10:1 12:1 14:1 19:1 20:1 21:1 23:1 26:1 
4 1:1 6:1 18:1 19:1 20:1 23:1 25:1 26:1 
4 1:1 8:1 12:1 13:1 14:1 18:1 20:1 26:1 
4 1:1 8:1 12:1 13:1 19:1 20:1 26:1 
4 1:1 13:1 17:1 20:1 24:1 25:1 
2.086754603037527 1:1 13:1 19:1 20:1 24:1 25:1 26:1 
2.284577121925671 1:1 7:1 10:1 14:1 18:1 20:1 25:1 26:1 
3.0080441315851227 1:1 14:1 15:1 20:1 25:1 
0.24207490157372091 1:1 6:1 7:1 8:1 10:1 12:1 14:1 15:1 16:1 17:1 18:1 19:1 20:1 23:1 
4 1:1 10:1 22:1 23:1 24:1 25:1 26:1 
4 6:1 7:1 13:1 14:1 15:1 16:1 19:1 20:1 21:1 22:1 24:1 25:1 26:1 
1.0429602673002059 1:1 6:1 7:1 14:1 15:1 24:1 25:1 26:1 
4 1:1 6:1 16:1 18:1 20:1 23:1 26:1 
3.5365957323727661 1:1 16:1 18:1 24:1 25:1 26:1 
4 1:1 8:1 16:1 17:1 23:1 25:1 26:1 
2.5485178112030664 1:1 4:1 6:1 7:1 8:1 9:1 14:1 19:1 24:1 
0.44821965833971833 1:1 8:1 9:1 10:1 14:1 15:1 16:1 18:1 24:1 
4 1:1 4:1 8:1 10:1 13:1 15:1 16:1 18:1 19:1 24:1 
4 7:1 8:1 10:1 12:1 16:1 17:1 18:1 19:1 20:1 21:1 24:1 25:1 
0.58196614928423596 1:1 8:1 10:1 13:1 15:1 16:1 18:1 19:1 24:1 
4 7:1 8:1 10:1 11:1 17:1 18:1 19:1 20:1 21:1 24:1 25:1 
4 12:1 13:1 14:1 15:1 16:1 17:1 22:1 23:1 25:1 26:1 
2.3428447796003851 1:1 12:1 13:1 14:1 15:1 16:1 21:1 22:1 23:1 24:1 25:1 26:1 
0.65794997588879278 1:1 8:1 12:1 13:1 14:1 21:1 22:1 
4 1:1 8:1 12:1 13:1 14:1 21:1 22:1 
4 8:1 14:1 19:1 20:1 21:1 22:1 24:1 25:1 
0.42692380956717257 1:1 5:1 6:1 8:1 10:1 12:1 13:1 18:1 25:1 
4 5:1 6:1 9:1 11:1 12:1 14:1 15:1 18:1 
4 3:1 4:1 7:1 8:1 9:1 10:1 12:1 13:1 14:1 24:1 25:1 26:1 
4 3:1 4:1 6:1 8:1 9:1 10:1 12:1 13:1 16:1 21:1 24:1 26:1 
4 3:1 7:1 8:1 9:1 10:1 12:1 13:1 14:1 15:1 16:1 17:1 18:1 26:1 
4 3:1 7:1 8:1 9:1 10:1 13:1 14:1 15:1 16:1 17:1 22:1 25:1 26:1 
4 6:1 8:1 9:1 12:1 13:1 14:1 20:1 22:1 25:1 26:1 
4 2:1 4:1 5:1 7:1 8:1 12:1 16:1 24:1 25:1 26:1 
4 6:1 8:1 9:1 10:1 16:1 17:1 22:1 25:1 26:1 
4 2:1 6:1 8:1 12:1 22:1 25:1 26:1 
4 6:1 8:1 9:1 10:1 12:1 14:1 16:1 20:1 22:1 25:1 26:1 
4 5:1 6:1 7:1 8:1 10:1 13:1 14:1 25:1 26:1 
4 2:1 8:1 10:1 11:1 13:1 14:1 15:1 18:1 19:1 20:1 25:1 26:1 
4 2:1 6:1 7:1 8:1 9:1 10:1 14:1 15:1 20:1 22:1 24:1 25:1 26:1 
4 8:1 9:1 10:1 11:1 14:1 20:1 21:1 24:1 25:1 26:1 
0.85360662771814078 1:1 8:1 10:1 11:1 14:1 16:1 18:1 19:1 20:1 23:1 25:1 26:1 
4 3:1 4:1 6:1 9:1 10:1 11:1 12:1 20:1 24:1 25:1 26:1 
4 2:1 8:1 10:1 11:1 24:1 25:1 26:1 
4 1:1 4:1 6:1 8:1 24:1 25:1 26:1 
4 1:1 10:1 21:1 23:1 25:1 26:1 
0.60540968123178829 1:1 6:1 7:1 8:1 9:1 10:1 13:1 14:1 15:1 18:1 19:1 21:1 24:1 
2.7340690993380687 1:1 7:1 8:1 16:1 24:1 26:1 
4 1:1 8:1 23:1 25:1 
4 8:1 10:1 14:1 21:1 25:1 
1.1703237786557246 1:1 8:1 14:1 15:1 16:1 22:1 23:1 25:1 
1.7307087729441335 1:1 6:1 8:1 12:1 13:1 14:1 15:1 16:1 17:1 22:1 26:1 
0.36992691773400077 1:1 7:1 8:1 12:1 15:1 16:1 17:1 20:1 21:1 24:1 25:1 
4 1:1 6:1 8:1 12:1 14:1 15:1 17:1 18:1 20:1 21:1 23:1 25:1 26:1 
4 5:1 14:1 16:1 17:1 18:1 20:1 22:1 23:1 24:1 25:1 
4 1:1 4:1 8:1 15:1 16:1 17:1 19:1 20:1 24:1 25:1 26:1 
4 6:1 8:1 12:1 13:1 14:1 19:1 22:1 24:1 25:1 26:1 
4 5:1 6:1 15:1 16:1 17:1 18:1 19:1 24:1 
4 1:1 10:1 14:1 15:1 16:1 22:1 23:1 26:1 
4 10:1 15:1 16:1 18:1 24:1 
4 5:1 7:1 8:1 10:1 14:1 16:1 17:1 18:1 19:1 20:1 24:1 
0.59717892017962582 1:1 8:1 10:1 12:1 14:1 15:1 19:1 20:1 21:1 25:1 26:1 
0.75991879818072205 1:1 6:1 7:1 11:1 12:1 14:1 15:1 16:1 17:1 18:1 23:1 
0.54097642014412961 1:1 10:1 11:1 14:1 15:1 17:1 18:1 19:1 24:1 25:1 26:1 
0.75533123923902923 1:1 6:1 8:1 9:1 10:1 11:1 12:1 14:1 16:1 24:1 26:1 
0.57273599491011817 1:1 6:1 7:1 8:1 18:1 24:1 25:1 26:1 
4 4:1 5:1 6:1 8:1 10:1 12:1 22:1 25:1 26:1 
1.7532990409403777 1:1 8:1 13:1 14:1 16:1 17:1 24:1 25:1 26:1 
0.11052137234383519 1:1 8:1 9:1 10:1 12:1 14:1 17:1 18:1 19:1 20:1 24:1 25:1 26:1 
4 11:1 12:1 13:1 14:1 15:1 18:1 24:1 25:1 26:1 
4 4:1 6:1 7:1 8:1 9:1 10:1 13:1 14:1 18:1 22:1 24:1 25:1 
4 1:1 4:1 10:1 14:1 25:1 26:1 
4 6:1 10:1 11:1 12:1 13:1 14:1 18:1 19:1 22:1 23:1 24:1 25:1 26:1 
4 4:1 6:1 8:1 10:1 11:1 12:1 13:1 14:1 23:1 24:1 25:1 
1.2713456433711285 1:1 6:1 7:1 10:1 11:1 12:1 13:1 14:1 20:1 23:1 26:1 
1.2032795926437441 1:1 6:1 7:1 10:1 11:1 12:1 13:1 14:1 17:1 22:1 23:1 
4 5:1 6:1 7:1 10:1 11:1 12:1 14:1 17:1 22:1 23:1 25:1 26:1 
4 5:1 6:1 7:1 10:1 11:1 14:1 18:1 22:1 23:1 24:1 25:1 26:1 
4 6:1 7:1 8:1 11:1 24:1 25:1 26:1 
4 5:1 7:1 8:1 11:1 12:1 13:1 15:1 16:1 17:1 18:1 19:1 20:1 21:1 22:1 24:1 25:1 26:1 
3.9679091279751213 1:1 6:1 9:1 12:1 16:1 17:1 19:1 20:1 24:1 
1.7216646485837468 1:1 6:1 9:1 11:1 12:1 16:1 17:1 18:1 19:1 20:1 24:1 
4 6:1 9:1 10:1 11:1 12:1 16:1 17:1 18:1 20:1 24:1 
-4 1:1 2:1 4:1 18:1 19:1 20:1 21:1 24:1 25:1 26:1 
-4 1:1 2:1 4:1 6:1 7:1 10:1 11:1 12:1 16:1 18:1 19:1 20:1 22:1 24:1 25:1 26:1 
-4 1:1 2:1 10:1 14:1 18:1 19:1 20:1 22:1 23:1 24:1 25:1 
-4 1:1 2:1 10:1 11:1 16:1 20:1 21:1 22:1 24:1 25:1 
-4 1:1 20:1 24:1 26:1 
-4 1:1 6:1 9:1 10:1 11:1 12:1 15:1 16:1 17:1 18:1 20:1 21:1 23:1 26:1 
-4 1:1 2:1 4:1 6:1 8:1 9:1 10:1 11:1 12:1 15:1 16:1 17:1 18:1 19:1 20:1 21:1 22:1 23:1 
-4 1:1 2:1 4:1 6:1 7:1 8:1 10:1 11:1 12:1 13:1 14:1 15:1 16:1 17:1 18:1 19:1 20:1 21:1 22:1 23:1 
-2.5951851027612398 9:1 10:1 15:1 16:1 19:1 22:1 25:1 26:1 
-0.31020079801572142 2:1 9:1 12:1 15:1 16:1 19:1 24:1 25:1 26:1 
-1.1430050105116558 4:1 8:1 10:1 12:1 14:1 16:1 17:1 18:1 19:1 22:1 23:1 24:1 25:1 26:1 
-4 1:1 4:1 8:1 16:1 17:1 18:1 19:1 22:1 23:1 25:1 26:1 
-4 1:1 4:1 8:1 10:1 16:1 18:1 19:1 20:1 22:1 23:1 24:1 25:1 26:1 
-4 1:1 4:1 16:1 17:1 20:1 22:1 24:1 25:1 
-0.81507166708396894 2:1 5:1 6:1 10:1 11:1 15:1 16:1 19:1 20:1 21:1 23:1 25:1 26:1 
-1.8260254206134594 18:1 19:1 20:1 21:1 22:1 23:1 25:1 26:1 
-0.61636176432753587 6:1 9:1 14:1 18:1 22:1 24:1 25:1 26:1 
-1.210157917736165 6:1 11:1 14:1 17:1 23:1 
-0.24515450169965169 12:1 16:1 23:1 
-2.0839052624651559 5:1 8:1 16:1 18:1 21:1 22:1 23:1 25:1 26:1 
-4 1:1 4:1 8:1 9:1 12:1 14:1 16:1 17:1 19:1 22:1 23:1 
-4 1:1 8:1 9:1 12:1 14:1 16:1 20:1 21:1 22:1 23:1 
-4 1:1 8:1 9:1 12:1 16:1 17:1 22:1 23:1 
-3.4411552747264702 5:1 10:1 12:1 13:1 14:1 16:1 17:1 18:1 21:1 
-4 1:1 5:1 7:1 9:1 10:1 12:1 14:1 17:1 21:1 22:1 26:1 
-4 1:1 2:1 6:1 7:1 9:1 11:1 12:1 14:1 17:1 21:1 22:1 26:1 
-0.68479806212338623 7:1 12:1 14:1 17:1 19:1 20:1 22:1 23:1 
-1.2479167576434971 5:1 10:1 11:1 14:1 17:1 18:1 21:1 22:1 23:1 25:1 
-2.7183534114543204 5:1 10:1 11:1 18:1 22:1 23:1 25:1 26:1 
-2.9901144179099499 9:1 12:1 14:1 16:1 19:1 20:1 21:1 22:1 23:1 25:1 26:1 
-4 1:1 10:1 12:1 19:1 20:1 21:1 22:1 23:1 25:1 26:1 
-4 1:1 2:1 4:1 6:1 8:1 11:1 13:1 15:1 17:1 19:1 20:1 22:1 25:1 
-4 1:1 4:1 6:1 22:1 
-4 1:1 2:1 4:1 6:1 8:1 15:1 20:1 22:1 25:1 
-4 1:1 2:1 4:1 6:1 8:1 11:1 13:1 15:1 20:1 22:1 25:1 
-4 1:1 6:1 9:1 12:1 14:1 15:1 17:1 19:1 20:1 22:1 25:1 26:1 
-4 1:1 6:1 9:1 12:1 14:1 15:1 17:1 19:1 20:1 22:1 25:1 
-4 5:1 9:1 10:1 11:1 14:1 15:1 16:1 17:1 21:1 22:1 25:1 26:1 
-4 2:1 4:1 5:1 6:1 7:1 8:1 9:1 10:1 11:1 14:1 15:1 16:1 20:1 21:1 25:1 
-4 1:1 6:1 7:1 8:1 9:1 10:1 12:1 14:1 15:1 20:1 21:1 22:1 
-4 4:1 5:1 6:1 7:1 8:1 11:1 16:1 18:1 20:1 22:1 23:1 
-4 1:1 8:1 9:1 10:1 15:1 17:1 18:1 20:1 23:1 24:1 
-4 1:1 8:1 9:1 10:1 15:1 17:1 18:1 20:1 23:1 24:1 
-4 1:1 8:1 9:1 10:1 15:1 17:1 18:1 20:1 23:1 24:1 
-4 1:1 8:1 9:1 10:1 15:1 17:1 18:1 20:1 23:1 24:1 25:1 
-4 1:1 10:1 14:1 15:1 21:1 22:1 24:1 25:1 26:1 
-4 1:1 10:1 14:1 15:1 18:1 23:1 25:1 26:1 
-4 1:1 5:1 6:1 10:1 17:1 18:1 22:1 23:1 24:1 25:1 
-4 1:1 7:1 10:1 13:1 14:1 15:1 17:1 21:1 22:1 23:1 24:1 25:1 
-4 1:1 7:1 8:1 12:1 13:1 14:1 16:1 20:1 21:1 24:1 
-4 1:1 12:1 21:1 22:1 23:1 24:1 25:1 
-3.6960274998057217 8:1 12:1 14:1 16:1 17:1 18:1 23:1 25:1 26:1 
-4 1:1 7:1 10:1 11:1 14:1 16:1 17:1 18:1 23:1 25:1 26:1 
-4 1:1 10:1 18:1 22:1 24:1 25:1 26:1 
-0.54107516011863288 9:1 10:1 12:1 18:1 19:1 22:1 24:1 25:1 26:1 
-4 24:1 25:1 26:1 
-0.93317811174171694 20:1 22:1 24:1 25:1 26:1 
-1.1032570136092068 20:1 24:1 25:1 
-0.77421373797460113 9:1 20:1 22:1 23:1 24:1 25:1 26:1 
-4 20:1 24:1 25:1 26:1 
-1.4848378316810629 10:1 20:1 22:1 24:1 25:1 26:1 
-0.048322706526917614 4:1 10:1 19:1 20:1 24:1 25:1 26:1 
-1.4313331023282245 20:1 21:1 24:1 25:1 26:1 
-1.5296232826446325 12:1 18:1 20:1 22:1 24:1 25:1 
-0.46291221706693575 10:1 18:1 19:1 20:1 21:1 22:1 25:1 26:1 
-4 18:1 19:1 20:1 21:1 22:1 24:1 25:1 
-0.74767005311236745 20:1 21:1 22:1 25:1 26:1 
-0.87394976225046461 18:1 20:1 24:1 25:1 
-2.8604624452980478 16:1 18:1 19:1 20:1 21:1 25:1 
-0.077910725151500687 15:1 16:1 18:1 19:1 20:1 21:1 26:1 
-0.91992896462310281 18:1 19:1 20:1 21:1 22:1 25:1 
-0.90724211707214442 16:1 18:1 20:1 22:1 23:1 24:1 25:1 
-1.0308549658948292 3:1 4:1 7:1 10:1 14:1 16:1 17:1 24:1 25:1 
-1.4733120338475461 2:1 3:1 5:1 8:1 14:1 16:1 24:1 25:1 
-2.3791538243728625 3:1 4:1 5:1 6:1 9:1 10:1 14:1 19:1 21:1 22:1 24:1 25:1 26:1 
-4 8:1 11:1 12:1 14:1 15:1 16:1 18:1 22:1 23:1 24:1 25:1 26:1 
-0.63201126739030733 2:1 8:1 14:1 15:1 16:1 20:1 21:1 22:1 24:1 25:1 
-2.0527980026453689 8:1 11:1 12:1 18:1 19:1 20:1 22:1 23:1 24:1 25:1 26:1 
-1.4760210729589078 11:1 12:1 13:1 16:1 17:1 18:1 26:1 
-2.0592117982659679 7:1 8:1 12:1 13:1 14:1 18:1 19:1 20:1 21:1 22:1 23:1 25:1 26:1 
-0.40990520423101662 14:1 15:1 18:1 19:1 20:1 21:1 24:1 25:1 
-4 14:1 15:1 16:1 17:1 18:1 20:1 21:1 22:1 24:1 25:1 26:1 
-1.3794514462241265 8:1 12:1 14:1 20:1 21:1 23:1 25:1 26:1 
-1.8264187123314284 4:1 8:1 10:1 12:1 13:1 14:1 19:1 20:1 22:1 23:1 24:1 25:1 
-4 1:1 14:1 20:1 
-4 1:1 24:1 
-4 1:1 6:1 8:1 9:1 14:1 16:1 19:1 21:1 26:1 
-1.6230191123422344 3:1 9:1 12:1 24:1 25:1 26:1 
-0.54623136120419424 6:1 7:1 9:1 12:1 13:1 25:1 26:1 
-2.8998298553679667 6:1 7:1 12:1 22:1 25:1 26:1 
-0.6600837964133115 6:1 9:1 12:1 24:1 25:1 26:1 
-0.22833049796904659 3:1 12:1 21:1 24:1 25:1 26:1 
-1.0340860421947493 6:1 12:1 13:1 18:1 19:1 20:1 25:1 26:1 
-0.7945845303266329 3:1 12:1 20:1 21:1 24:1 25:1 26:1 
-4 7:1 10:1 12:1 22:1 24:1 25:1 26:1 
-1.9247310204221206 7:1 10:1 21:1 25:1 26:1 
-0.46272415103594011 7:1 10:1 20:1 21:1 25:1 26:1 
-4 5:1 10:1 20:1 24:1 25:1 26:1 
-3.2061286257428545 7:1 10:1 18:1 20:1 24:1 25:1 26:1 
-1.0730854950912656 7:1 10:1 20:1 25:1 26:1 
-0.34844806601284561 4:1 20:1 24:1 25:1 26:1 
-4 7:1 9:1 14:1 19:1 22:1 24:1 25:1 26:1 
-1.3134931243294168 3:1 6:1 7:1 9:1 12:1 21:1 24:1 25:1 26:1 
-0.86948234640952127 6:1 7:1 9:1 10:1 12:1 20:1 22:1 23:1 25:1 26:1 
-1.0635632220312836 8:1 16:1 
-0.75637790931320958 8:1 16:1 22:1 25:1 26:1 
-0.9938887571647782 8:1 10:1 22:1 24:1 25:1 
-1.2384464126093417 25:1 26:1 
-2.2858085894221762 3:1 5:1 10:1 20:1 24:1 25:1 26:1 
-4 1:1 7:1 8:1 24:1 25:1 26:1 
-4 1:1 4:1 7:1 8:1 
-4 1:1 5:1 6:1 7:1 11:1 12:1 21:1 24:1 
-4 1:1 4:1 12:1 13:1 26:1 
-4 1:1 6:1 7:1 8:1 12:1 26:1 
-4 1:1 5:1 6:1 7:1 8:1 12:1 25:1 26:1 
-4 1:1 16:1 21:1 23:1 25:1 
-4 1:1 6:1 12:1 15:1 16:1 23:1 24:1 25:1 
-4 1:1 12:1 13:1 16:1 23:1 24:1 25:1 
-4 1:1 12:1 13:1 16:1 23:1 25:1 26:1 
-4 1:1 14:1 16:1 21:1 
-4 1:1 16:1 26:1 
-4 1:1 13:1 16:1 17:1 20:1 23:1 25:1 
-4 1:1 16:1 17:1 23:1 25:1 26:1 
-4 1:1 11:1 16:1 23:1 24:1 25:1 26:1 
-4 1:1 14:1 15:1 17:1 18:1 22:1 23:1 24:1 25:1 26:1 
-4 1:1 13:1 16:1 18:1 23:1 25:1 26:1 
-4 1:1 14:1 15:1 16:1 26:1 
-4 1:1 18:1 23:1 26:1 
-4 1:1 8:1 9:1 12:1 18:1 19:1 22:1 23:1 26:1 
-4 1:1 8:1 14:1 16:1 17:1 21:1 23:1 25:1 26:1 
-4 1:1 13:1 16:1 17:1 21:1 23:1 25:1 26:1 
-4 1:1 14:1 15:1 16:1 17:1 18:1 23:1 25:1 26:1 
-4 1:1 15:1 16:1 17:1 18:1 23:1 26:1 
-4 1:1 16:1 18:1 23:1 26:1 
-4 1:1 17:1 18:1 22:1 23:1 
-4 1:1 16:1 17:1 23:1 25:1 26:1 
-4 1:1 15:1 16:1 17:1 18:1 19:1 23:1 25:1 26:1 
-4 1:1 16:1 17:1 18:1 21:1 22:1 24:1 25:1 26:1 
-4 1:1 5:1 16:1 17:1 19:1 23:1 25:1 26:1 
-4 1:1 5:1 9:1 12:1 13:1 16:1 18:1 19:1 23:1 24:1 
-4 1:1 19:1 22:1 25:1 26:1 
-4 1:1 8:1 12:1 15:1 21:1 23:1 25:1 26:1 
-4 1:1 5:1 8:1 16:1 18:1 21:1 22:1 24:1 
-1.5320448752640734 13:1 16:1 20:1 21:1 22:1 24:1 25:1 26:1 
-1.3305967604920927 6:1 8:1 20:1 22:1 25:1 26:1 
-2.6135241283819939 10:1 13:1 16:1 20:1 24:1 25:1 26:1 
-4 7:1 8:1 10:1 12:1 13:1 16:1 19:1 20:1 22:1 24:1 25:1 26:1 
-4 1:1 12:1 13:1 19:1 22:1 24:1 25:1 26:1 
-1.0442629791629898 4:1 12:1 18:1 20:1 24:1 25:1 
-2.5212639206796155 8:1 24:1 25:1 26:1 
-0.6637174025617566 4:1 9:1 10:1 12:1 21:1 22:1 24:1 25:1 26:1 
-2.1292233320287992 4:1 6:1 7:1 8:1 9:1 10:1 11:1 12:1 17:1 18:1 20:1 22:1 24:1 25:1 26:1 
-0.99668670319365682 4:1 7:1 8:1 10:1 12:1 16:1 21:1 22:1 24:1 25:1 26:1 
-0.00044728910309307923 2:1 10:1 11:1 12:1 16:1 20:1 22:1 24:1 25:1 26:1 
-4 4:1 5:1 6:1 7:1 9:1 10:1 11:1 12:1 14:1 15:1 18:1 19:1 20:1 22:1 24:1 25:1 26:1 
-4 4:1 6:1 8:1 10:1 12:1 14:1 16:1 21:1 22:1 24:1 25:1 
-2.3656894964983048 4:1 8:1 10:1 12:1 14:1 20:1 21:1 22:1 24:1 25:1 
-1.1220217265096464 3:1 4:1 6:1 8:1 9:1 10:1 11:1 13:1 16:1 18:1 19:1 21:1 22:1 24:1 25:1 26:1 
-2.6629444347038116 3:1 4:1 6:1 7:1 8:1 10:1 11:1 12:1 13:1 14:1 15:1 19:1 20:1 25:1 26:1 
-4 1:1 6:1 8:1 10:1 12:1 13:1 15:1 17:1 18:1 19:1 20:1 21:1 22:1 25:1 
-4 1:1 8:1 10:1 13:1 15:1 19:1 22:1 25:1 26:1 
-1.6786962249987747 8:1 10:1 16:1 22:1 24:1 26:1 
-4 10:1 11:1 12:1 14:1 20:1 24:1 
-0.50983348058019184 3:1 4:1 6:1 8:1 10:1 11:1 12:1 13:1 16:1 20:1 21:1 22:1 23:1 24:1 26:1 
-1.9988007733528823 3:1 4:1 6:1 8:1 9:1 10:1 11:1 12:1 13:1 14:1 21:1 22:1 24:1 25:1 26:1 
-1.4595896781536652 4:1 6:1 9:1 10:1 11:1 12:1 13:1 14:1 15:1 16:1 22:1 23:1 25:1 26:1 
-4 1:1 10:1 12:1 24:1 
-4 1:1 12:1 16:1 26:1 
-4 1:1 10:1 12:1 24:1 
-0.81660716662866584 4:1 8:1 12:1 14:1 18:1 24:1 
-4 1:1 4:1 8:1 16:1 17:1 24:1 25:1 26:1 
-1.1497694819589597 6:1 8:1 14:1 17:1 18:1 19:1 20:1 21:1 24:1 25:1 
-4 6:1 8:1 10:1 12:1 14:1 16:1 17:1 19:1 21:1 24:1 25:1 26:1 
-4 10:1 12:1 14:1 16:1 17:1 19:1 21:1 24:1 25:1 26:1 
-1.2541066913128982 10:1 12:1 14:1 16:1 17:1 19:1 21:1 23:1 24:1 
-1.2877635027920795 10:1 13:1 18:1 19:1 24:1 25:1 26:1 
-4 1:1 4:1 6:1 9:1 12:1 18:1 20:1 21:1 22:1 25:1 
-4 1:1 4:1 6:1 9:1 12:1 15:1 17:1 18:1 20:1 24:1 25:1 
-4 4:1 5:1 8:1 9:1 12:1 16:1 19:1 24:1 25:1 26:1 
-4 1:1 18:1 20:1 26:1 
-4 1:1 12:1 14:1 24:1 
-4 1:1 13:1 14:1 20:1 24:1 
-4 1:1 10:1 15:1 16:1 20:1 25:1 26:1 
-4 1:1 12:1 14:1 15:1 20:1 23:1 25:1 26:1 
-0.75002738989889739 11:1 12:1 14:1 20:1 23:1 
-1.507517070734552 9:1 10:1 12:1 13:1 14:1 15:1 17:1 18:1 20:1 25:1 
-1.6724112892101186 4:1 5:1 6:1 7:1 8:1 9:1 10:1 11:1 12:1 21:1 
-4 1:1 6:1 7:1 8:1 9:1 10:1 12:1 14:1 15:1 16:1 18:1 21:1 22:1 23:1 24:1 
-4 1:1 4:1 6:1 8:1 10:1 11:1 12:1 14:1 15:1 16:1 20:1 21:1 22:1 23:1 24:1 26:1 
-4 1:1 4:1 6:1 8:1 9:1 10:1 11:1 12:1 13:1 14:1 15:1 16:1 18:1 21:1 22:1 23:1 24:1 
-4 1:1 4:1 6:1 8:1 10:1 11:1 12:1 13:1 14:1 15:1 16:1 17:1 18:1 19:1 20:1 21:1 22:1 23:1 24:1 26:1 
-1.1667581754253336 4:1 6:1 7:1 8:1 10:1 11:1 12:1 13:1 14:1 15:1 16:1 17:1 18:1 19:1 20:1 21:1 22:1 23:1 25:1 26:1 
-1.4982811394378515 4:1 6:1 7:1 8:1 9:1 10:1 12:1 13:1 14:1 15:1 16:1 17:1 18:1 19:1 20:1 21:1 22:1 25:1 26:1 
-4 4:1 6:1 7:1 8:1 9:1 10:1 11:1 12:1 13:1 14:1 15:1 16:1 17:1 18:1 19:1 20:1 22:1 24:1 25:1 26:1 
-2.4849073550885512 4:1 6:1 7:1 8:1 9:1 10:1 11:1 12:1 13:1 14:1 15:1 16:1 17:1 18:1 19:1 20:1 21:1 22:1 25:1 26:1 
-3.8795746656069552 6:1 7:1 8:1 9:1 10:1 11:1 12:1 13:1 14:1 15:1 16:1 17:1 18:1 19:1 20:1 21:1 22:1 23:1 
-4 5:1 14:1 18:1 20:1 24:1 25:1 26:1 
-0.70291511529032991 6:1 8:1 9:1 10:1 18:1 25:1 
-0.62281078354776087 9:1 10:1 11:1 12:1 17:1 24:1 25:1 26:1 
-4 1:1 6:1 7:1 8:1 9:1 10:1 16:1 17:1 18:1 24:1 25:1 26:1 
-4 1:1 8:1 9:1 10:1 12:1 13:1 14:1 20:1 21:1 25:1 26:1 
-4 1:1 6:1 8:1 9:1 10:1 11:1 12:1 15:1 19:1 22:1 24:1 25:1 
-4 1:1 8:1 10:1 11:1 13:1 19:1 24:1 25:1 26:1 
-3.4756082322404653 4:1 10:1 14:1 18:1 21:1 24:1 25:1 26:1 
-1.0805118690047057 2:1 7:1 10:1 18:1 24:1 25:1 
-4 2:1 5:1 10:1 11:1 12:1 16:1 24:1 25:1 26:1 
-0.5883271737561836 2:1 10:1 12:1 16:1 20:1 24:1 25:1 26:1 
-0.31817219341655062 6:1 10:1 15:1 20:1 21:1 22:1 24:1 25:1 
-1.162395028648294 6:1 10:1 12:1 15:1 17:1 20:1 21:1 22:1 24:1 25:1 
-0.65234089993943856 6:1 8:1 10:1 15:1 17:1 20:1 21:1 22:1 24:1 25:1 26:1 
-4 5:1 6:1 8:1 9:1 10:1 13:1 15:1 20:1 21:1 22:1 25:1 
-2.9380282332761176 3:1 5:1 6:1 8:1 9:1 10:1 11:1 13:1 15:1 20:1 21:1 22:1 25:1 
-4 1:1 3:1 6:1 8:1 9:1 10:1 11:1 20:1 22:1 25:1 26:1 
-1.9327396369625189 6:1 7:1 8:1 22:1 23:1 25:1 26:1 
-4 6:1 7:1 8:1 10:1 22:1 25:1 26:1 
-0.76175752792061591 6:1 8:1 10:1 22:1 24:1 25:1 26:1 
-0.76604830528411094 2:1 5:1 6:1 8:1 22:1 25:1 26:1 
-0.66080674531229278 6:1 8:1 10:1 18:1 22:1 25:1 26:1 
-1.8104469314036802 2:1 6:1 8:1 10:1 24:1 25:1 26:1 
-4 6:1 8:1 12:1 14:1 18:1 22:1 24:1 25:1 26:1 
-4 6:1 8:1 12:1 14:1 22:1 25:1 
-4 6:1 8:1 10:1 14:1 18:1 25:1 
-3.6151435391037698 14:1 25:1 26:1 
-4 6:1 14:1 18:1 20:1 24:1 25:1 
-2.9975169000476845 6:1 8:1 14:1 18:1 19:1 20:1 22:1 25:1 
-4 6:1 8:1 10:1 12:1 14:1 16:1 18:1 20:1 25:1 
-4 10:1 14:1 18:1 20:1 24:1 25:1 26:1 
-1.8921411040902945 6:1 8:1 9:1 10:1 14:1 18:1 20:1 25:1 
-0.87611780928274796 6:1 8:1 9:1 10:1 14:1 17:1 18:1 20:1 22:1 23:1 25:1 
-0.56905571277839884 6:1 14:1 15:1 18:1 22:1 24:1 
-1.491715186863054 24:1 25:1 
-1.1401395327814132 4:1 7:1 8:1 10:1 14:1 16:1 18:1 19:1 20:1 22:1 23:1 25:1 
-1.1982072291160482 6:1 8:1 10:1 12:1 13:1 18:1 19:1 20:1 21:1 22:1 23:1 25:1 26:1 
-1.1384485716222619 4:1 6:1 8:1 10:1 12:1 13:1 14:1 15:1 16:1 18:1 20:1 22:1 25:1 26:1 
-1.497114248517021 6:1 7:1 9:1 12:1 14:1 15:1 18:1 20:1 21:1 22:1 23:1 24:1 25:1 26:1 
-3.0115557477352524 4:1 7:1 13:1 14:1 16:1 17:1 18:1 19:1 20:1 21:1 24:1 25:1 
-0.53224188241462789 4:1 8:1 13:1 14:1 16:1 17:1 19:1 20:1 21:1 24:1 25:1 26:1 
-0.68343108875532277 4:1 7:1 13:1 14:1 15:1 16:1 17:1 18:1 20:1 22:1 24:1 25:1 26:1 
-4 4:1 6:1 7:1 8:1 12:1 14:1 16:1 18:1 21:1 24:1 25:1 
-0.55463405731402093 4:1 7:1 8:1 9:1 11:1 14:1 16:1 19:1 22:1 26:1 
-4 4:1 6:1 7:1 9:1 10:1 13:1 14:1 19:1 20:1 24:1 25:1 26:1 
-1.0590436286627691 3:1 4:1 6:1 7:1 9:1 10:1 12:1 13:1 14:1 19:1 22:1 24:1 26:1 
-1.7330030759510913 4:1 7:1 8:1 9:1 10:1 11:1 15:1 16:1 18:1 19:1 20:1 23:1 24:1 25:1 26:1 
-1.8666066502927077 4:1 7:1 8:1 10:1 14:1 15:1 16:1 18:1 23:1 24:1 25:1 26:1 
-0.62175364615264839 3:1 8:1 11:1 14:1 16:1 18:1 20:1 23:1 24:1 25:1 
-2.0744158203421752 3:1 6:1 7:1 8:1 10:1 12:1 18:1 19:1 20:1 25:1 26:1 
-0.44170725969197816 3:1 12:1 13:1 16:1 18:1 20:1 25:1 
-4 1:1 9:1 10:1 14:1 17:1 18:1 22:1 23:1 
-2.303501316620713 4:1 7:1 8:1 9:1 10:1 12:1 13:1 14:1 17:1 18:1 21:1 25:1 
-1.1644909561841876 4:1 6:1 8:1 9:1 10:1 11:1 14:1 18:1 20:1 21:1 23:1 24:1 25:1 
-4 4:1 7:1 8:1 11:1 12:1 14:1 16:1 24:1 25:1 
-0.85105718411820497 4:1 7:1 8:1 10:1 13:1 14:1 17:1 19:1 24:1 
-4 3:1 6:1 7:1 8:1 11:1 12:1 13:1 14:1 17:1 20:1 25:1 
-4 4:1 6:1 7:1 9:1 10:1 11:1 13:1 14:1 18:1 19:1 21:1 24:1 25:1 
-2.0269425224626367 3:1 4:1 6:1 7:1 8:1 9:1 10:1 11:1 12:1 14:1 18:1 19:1 20:1 24:1 25:1 26:1 
-2.1938377235626469 4:1 6:1 7:1 8:1 10:1 11:1 12:1 14:1 18:1 20:1 24:1 
-4 4:1 7:1 8:1 10:1 11:1 12:1 14:1 19:1 20:1 25:1 26:1 
-0.44473424440478432 4:1 7:1 8:1 10:1 11:1 19:1 23:1 24:1 25:1 26:1 
-4 3:1 6:1 7:1 8:1 10:1 12:1 14:1 18:1 20:1 21:1 24:1 25:1 26:1 
-2.4158012585677029 4:1 5:1 14:1 17:1 18:1 20:1 25:1 
-2.460434749844822 4:1 6:1 7:1 8:1 10:1 11:1 12:1 14:1 17:1 18:1 20:1 21:1 24:1 25:1 26:1 
-1.6787198946405986 4:1 6:1 8:1 10:1 12:1 13:1 14:1 17:1 18:1 20:1 21:1 24:1 25:1 26:1 
-4 3:1 6:1 7:1 10:1 11:1 14:1 15:1 16:1 17:1 19:1 20:1 24:1 26:1 
-1.2638168192067154 9:1 10:1 12:1 16:1 18:1 20:1 22:1 24:1 
-1.473680907831125 2:1 7:1 8:1 10:1 11:1 12:1 13:1 14:1 15:1 16:1 17:1 18:1 22:1 25:1 26:1 
-2.2765826806722802 10:1 14:1 18:1 21:1 22:1 24:1 25:1 26:1 
-3.0851037714484315 8:1 9:1 10:1 14:1 16:1 17:1 18:1 20:1 21:1 22:1 23:1 24:1 25:1 26:1 
-0.20108256956180964 2:1 11:1 18:1 21:1 24:1 25:1 26:1 
-2.654158225190923 3:1 8:1 10:1 12:1 14:1 17:1 19:1 21:1 24:1 25:1 26:1 
-1.0656550138613843 9:1 10:1 11:1 16:1 18:1 19:1 21:1 22:1 24:1 26:1 
-0.54779706171650511 7:1 8:1 18:1 24:1 
-0.98541073353616437 4:1 12:1 14:1 15:1 16:1 18:1 20:1 23:1 24:1 25:1 
-1.0543748020111812 4:1 13:1 14:1 15:1 24:1 25:1 
-1.2059959859710472 4:1 5:1 12:1 14:1 15:1 17:1 18:1 21:1 24:1 25:1 
-0.67867739529614135 2:1 4:1 11:1 14:1 18:1 20:1 24:1 25:1 26:1 
-1.4354714153892332 4:1 5:1 14:1 15:1 25:1 26:1 
-1.319113997682493 4:1 16:1 20:1 24:1 25:1 
-0.58645375134842048 10:1 12:1 13:1 19:1 20:1 21:1 26:1 
-0.34203592716561615 4:1 24:1 25:1 
-0.46118203967957916 3:1 8:1 10:1 12:1 13:1 19:1 20:1 23:1 24:1 25:1 
-0.39029102749504729 2:1 4:1 5:1 14:1 15:1 16:1 17:1 18:1 24:1 25:1 26:1 
-3.4668497048740838 4:1 5:1 6:1 9:1 10:1 12:1 15:1 16:1 24:1 
-4 8:1 9:1 10:1 14:1 16:1 24:1 25:1 26:1 
-0.039553711431495976 2:1 3:1 10:1 11:1 12:1 14:1 15:1 20:1 22:1 23:1 24:1 25:1 26:1 
-1.2245229209296675 3:1 10:1 12:1 15:1 20:1 21:1 23:1 24:1 25:1 26:1 
-0.59666448869863098 3:1 6:1 12:1 14:1 16:1 18:1 20:1 23:1 24:1 25:1 
-3.8011358939289357 10:1 12:1 13:1 14:1 19:1 20:1 24:1 26:1 
-1.1755377795507171 13:1 14:1 15:1 16:1 17:1 18:1 24:1 25:1 26:1 
-2.523427156519666 3:1 4:1 7:1 10:1 12:1 13:1 24:1 25:1 
-4 6:1 7:1 9:1 10:1 13:1 14:1 20:1 22:1 23:1 24:1 25:1 
-0.78168082077374357 2:1 8:1 9:1 10:1 11:1 12:1 14:1 21:1 22:1 23:1 25:1 26:1 
-1.1377536062638336 3:1 4:1 9:1 11:1 12:1 13:1 14:1 20:1 21:1 22:1 24:1 25:1 26:1 
-1.8435287109963652 3:1 8:1 11:1 12:1 14:1 23:1 24:1 25:1 26:1 
-0.79514045423902113 10:1 13:1 14:1 22:1 23:1 25:1 
-0.52692822631547931 9:1 10:1 12:1 13:1 14:1 21:1 22:1 23:1 25:1 26:1 
-4 3:1 6:1 11:1 14:1 16:1 22:1 23:1 24:1 25:1 
-0.50236103048736047 2:1 6:1 12:1 14:1 15:1 16:1 22:1 25:1 26:1 
-4 1:1 4:1 7:1 20:1 23:1 
-4 7:1 10:1 17:1 18:1 19:1 20:1 24:1 
-4 1:1 4:1 12:1 14:1 17:1 18:1 19:1 20:1 25:1 26:1 
-2.1318216134749433 7:1 11:1 15:1 18:1 19:1 20:1 21:1 24:1 
-1.692805980575578 6:1 7:1 15:1 20:1 23:1 25:1 26:1 
-1.8154111867968137 6:1 7:1 11:1 14:1 15:1 20:1 21:1 
-4 1:1 6:1 7:1 20:1 21:1 24:1 25:1 
-4 1:1 5:1 6:1 7:1 8:1 14:1 20:1 21:1 22:1 24:1 26:1 
-4 1:1 4:1 5:1 8:1 20:1 26:1 
-4 1:1 4:1 6:1 8:1 9:1 12:1 13:1 
-4 1:1 4:1 6:1 8:1 16:1 26:1 
-4 1:1 4:1 6:1 8:1 16:1 26:1 
-4 1:1 6:1 7:1 20:1 21:1 24:1 25:1 26:1 
-4 1:1 6:1 7:1 8:1 21:1 22:1 24:1 26:1 
-3.709302618288834 4:1 6:1 8:1 9:1 14:1 18:1 20:1 21:1 22:1 24:1 25:1 26:1 
-4 1:1 4:1 6:1 8:1 9:1 18:1 20:1 21:1 24:1 26:1 
-4 1:1 4:1 6:1 8:1 18:1 26:1 
-4 1:1 4:1 5:1 6:1 8:1 11:1 12:1 16:1 21:1 22:1 24:1 25:1 26:1 
-0.57077026087111804 6:1 7:1 9:1 11:1 14:1 15:1 17:1 19:1 20:1 22:1 23:1 24:1 26:1 
-4 5:1 6:1 8:1 12:1 14:1 16:1 19:1 24:1 25:1 26:1 
-4 5:1 6:1 9:1 10:1 16:1 20:1 21:1 22:1 25:1 26:1 
-4 6:1 7:1 8:1 14:1 16:1 20:1 26:1 
-0.81080968307786117 4:1 10:1 14:1 15:1 21:1 25:1 26:1 
-4 6:1 8:1 12:1 16:1 24:1 25:1 26:1 
-4 6:1 11:1 16:1 18:1 20:1 22:1 24:1 25:1 26:1 
-1.027449415206487 3:1 6:1 7:1 8:1 13:1 16:1 22:1 24:1 25:1 26:1 
-4 6:1 10:1 16:1 20:1 21:1 22:1 24:1 25:1 26:1 
-4 9:1 12:1 14:1 18:1 19:1 22:1 24:1 25:1 26:1 
-2.7397960266111294 4:1 6:1 8:1 9:1 12:1 14:1 22:1 24:1 25:1 26:1 
-0.17248487107615437 4:1 6:1 9:1 12:1 14:1 20:1 21:1 22:1 24:1 26:1 
-1.2050104220002065 6:1 12:1 13:1 14:1 15:1 16:1 17:1 18:1 25:1 26:1 
-0.3898027217559018 2:1 4:1 6:1 11:1 12:1 14:1 16:1 17:1 18:1 19:1 20:1 24:1 25:1 
-2.4243962213937595 4:1 6:1 7:1 8:1 14:1 15:1 16:1 18:1 19:1 24:1 
-4 6:1 7:1 8:1 9:1 10:1 11:1 13:1 14:1 15:1 16:1 18:1 20:1 22:1 25:1 26:1 
-4 6:1 7:1 8:1 9:1 11:1 12:1 13:1 14:1 15:1 16:1 17:1 18:1 20:1 22:1 25:1 26:1 
-1.0138487644431848 12:1 20:1 21:1 24:1 25:1 26:1 
-0.58570918566447283 3:1 5:1 6:1 8:1 10:1 14:1 20:1 21:1 23:1 26:1 
-0.75414866168276928 2:1 11:1 12:1 14:1 20:1 21:1 22:1 25:1 26:1 
-2.2766793714618681 2:1 10:1 14:1 21:1 24:1 25:1 26:1 
-0.5741354467210823 3:1 12:1 16:1 20:1 22:1 23:1 24:1 25:1 26:1 
-0.57286884925258041 2:1 11:1 12:1 14:1 18:1 19:1 20:1 22:1 24:1 25:1 26:1 
-0.40520525408897845 4:1 11:1 12:1 14:1 19:1 20:1 22:1 23:1 24:1 25:1 26:1 
-0.8360437120270019 3:1 4:1 12:1 14:1 20:1 21:1 24:1 25:1 26:1 
-1.1918328417066748 2:1 14:1 20:1 22:1 24:1 25:1 26:1 
-1.9048438927584934 3:1 12:1 14:1 20:1 21:1 24:1 25:1 26:1 
-4 12:1 14:1 20:1 24:1 25:1 26:1 
-0.25162153396108611 11:1 16:1 18:1 20:1 21:1 23:1 24:1 25:1 26:1 
-0.96727774729569871 14:1 15:1 24:1 25:1 26:1 
-3.5208893941160824 14:1 15:1 25:1 
-4 2:1 5:1 11:1 14:1 18:1 19:1 20:1 24:1 25:1 26:1 
-0.90095617400733152 7:1 12:1 18:1 22:1 23:1 25:1 26:1 
-4 6:1 7:1 14:1 15:1 16:1 22:1 23:1 24:1 25:1 
-0.5489146616487981 7:1 9:1 16:1 17:1 18:1 24:1 25:1 26:1 
-4 14:1 16:1 18:1 19:1 20:1 22:1 24:1 25:1 
-1.2182842005390961 15:1 16:1 24:1 25:1 26:1 
-3.6269332487591939 6:1 11:1 12:1 20:1 23:1 24:1 25:1 
-0.13238729942886801 2:1 14:1 15:1 18:1 24:1 25:1 26:1 
-1.6326672371567805 2:1 8:1 11:1 13:1 14:1 15:1 16:1 18:1 19:1 20:1 22:1 24:1 25:1 26:1 
-0.6386475145733872 2:1 11:1 13:1 14:1 15:1 16:1 17:1 24:1 25:1 26:1 
-1.0636700215660513 8:1 13:1 14:1 22:1 
-2.6703488620273581 6:1 8:1 11:1 13:1 16:1 17:1 18:1 20:1 21:1 23:1 24:1 25:1 26:1 
-0.58421691675478515 6:1 8:1 10:1 11:1 12:1 13:1 15:1 18:1 20:1 23:1 24:1 26:1 
-0.87927552449095259 6:1 8:1 10:1 12:1 15:1 18:1 20:1 23:1 24:1 
-4 4:1 6:1 7:1 8:1 10:1 12:1 13:1 14:1 16:1 17:1 21:1 23:1 24:1 25:1 
-1.8612680961233434 4:1 6:1 8:1 13:1 14:1 16:1 17:1 18:1 19:1 24:1 25:1 26:1 
-0.97844613322626817 3:1 4:1 5:1 6:1 19:1 25:1 26:1 
-0.72043178674778707 6:1 14:1 18:1 19:1 25:1 26:1 
-4 1:1 8:1 16:1 17:1 26:1 
-4 1:1 5:1 8:1 14:1 23:1 26:1 
-1.4063207787402601 4:1 8:1 12:1 16:1 17:1 20:1 25:1 26:1 
-4 1:1 3:1 9:1 10:1 17:1 18:1 19:1 20:1 21:1 22:1 25:1 26:1 
-4 1:1 5:1 8:1 10:1 11:1 14:1 17:1 26:1 
-4 1:1 4:1 8:1 14:1 16:1 17:1 20:1 
-0.06153840972320359 4:1 6:1 8:1 12:1 16:1 17:1 20:1 23:1 25:1 
-3.2675317909447337 10:1 11:1 12:1 14:1 22:1 23:1 
-0.60623161517007473 14:1 15:1 16:1 23:1 24:1 
-0.29170548695906218 3:1 10:1 11:1 12:1 15:1 23:1 25:1 26:1 
-0.63234579432072469 14:1 15:1 16:1 17:1 18:1 19:1 23:1 24:1 25:1 
-2.5061254283417225 6:1 7:1 8:1 10:1 13:1 16:1 18:1 22:1 24:1 26:1 
-1.2618265801052524 6:1 7:1 8:1 13:1 14:1 16:1 18:1 20:1 21:1 26:1 
-2.4842907247815136 5:1 6:1 7:1 8:1 13:1 14:1 15:1 16:1 17:1 18:1 20:1 21:1 23:1 26:1 
-4 5:1 6:1 7:1 8:1 10:1 12:1 13:1 17:1 19:1 20:1 22:1 23:1 26:1 
-4 6:1 7:1 8:1 10:1 12:1 15:1 16:1 17:1 19:1 20:1 22:1 23:1 25:1 
-1.0371312771425214 14:1 16:1 21:1 25:1 26:1 
-1.8308124786327669 4:1 5:1 9:1 14:1 16:1 25:1 
-1.8646963279579225 3:1 6:1 7:1 12:1 15:1 16:1 17:1 24:1 25:1 26:1 
-4 6:1 7:1 9:1 14:1 16:1 17:1 24:1 25:1 26:1 
-0.53335876902520163 4:1 5:1 14:1 16:1 22:1 
-1.6305122889981782 3:1 5:1 12:1 14:1 22:1 26:1 
-0.91706431199115912 12:1 13:1 14:1 15:1 16:1 23:1 24:1 
-2.1077277777290178 4:1 5:1 6:1 8:1 10:1 12:1 13:1 16:1 18:1 23:1 24:1 
-4 5:1 6:1 9:1 12:1 13:1 14:1 19:1 20:1 21:1 
-4 3:1 5:1 6:1 11:1 14:1 16:1 22:1 23:1 25:1 26:1 
-1.199000049693367 3:1 8:1 15:1 16:1 24:1 25:1 26:1 
-4 1:1 7:1 10:1 12:1 15:1 20:1 
-2.8116128218275067 7:1 8:1 9:1 10:1 12:1 18:1 19:1 25:1 
-1.1255895601643982 2:1 3:1 5:1 7:1 10:1 12:1 14:1 18:1 19:1 20:1 22:1 25:1 26:1 
-3.5541155091025716 2:1 5:1 7:1 10:1 12:1 14:1 18:1 19:1 20:1 22:1 25:1 26:1 
-2.112818630521708 2:1 5:1 7:1 10:1 12:1 14:1 18:1 19:1 20:1 22:1 25:1 26:1 
-0.8072140651580656 2:1 7:1 8:1 9:1 10:1 12:1 14:1 16:1 18:1 25:1 26:1 
-3.3455811371494777 10:1 11:1 14:1 15:1 18:1 19:1 20:1 21:1 22:1 23:1 24:1 25:1 26:1 
-1.2679004030220606 2:1 8:1 10:1 13:1 14:1 18:1 20:1 21:1 22:1 24:1 25:1 26:1 
-0.5005148302959076 6:1 8:1 17:1 18:1 19:1 20:1 22:1 23:1 24:1 25:1 26:1 
-4 14:1 18:1 22:1 24:1 25:1 26:1 
-0.96403464883521595 11:1 12:1 18:1 20:1 22:1 23:1 25:1 
-4 4:1 5:1 6:1 8:1 9:1 10:1 12:1 13:1 14:1 17:1 18:1 19:1 20:1 22:1 23:1 24:1 25:1 
-0.45459311356404286 7:1 8:1 9:1 12:1 14:1 15:1 18:1 19:1 22:1 23:1 
-4 8:1 11:1 12:1 14:1 18:1 19:1 23:1 24:1 25:1 26:1 
-3.5888868591480025 3:1 4:1 6:1 8:1 11:1 14:1 16:1 18:1 24:1 25:1 
-0.72185555078257024 7:1 8:1 18:1 19:1 22:1 24:1 25:1 26:1 
-2.706896031227835 10:1 14:1 18:1 24:1 25:1 26:1 
-0.71386361697530831 6:1 8:1 13:1 18:1 24:1 
-0.68736357435736617 8:1 14:1 18:1 20:1 22:1 
-0.95977104369141064 7:1 8:1 9:1 10:1 14:1 15:1 16:1 20:1 23:1 26:1 
-4 8:1 9:1 10:1 11:1 14:1 15:1 16:1 18:1 19:1 20:1 
-4 5:1 8:1 12:1 15:1 16:1 19:1 20:1 22:1 24:1 25:1 26:1 
-0.69718817910279618 3:1 8:1 16:1 18:1 19:1 24:1 25:1 26:1 
-1.0091725501912265 3:1 19:1 20:1 24:1 25:1 26:1 
-0.53746788056244521 3:1 11:1 18:1 19:1 22:1 24:1 25:1 26:1 
-0.4108629612765749 3:1 11:1 14:1 15:1 19:1 22:1 25:1 26:1 
-1.2003942504984288 3:1 4:1 6:1 8:1 14:1 20:1 24:1 25:1 
-3.3786238277182705 3:1 14:1 18:1 24:1 25:1 26:1 
-1.391576521611807 3:1 18:1 20:1 21:1 24:1 25:1 26:1 
-4 6:1 7:1 8:1 10:1 11:1 20:1 24:1 25:1 
-0.8918721293909494 4:1 8:1 9:1 11:1 12:1 14:1 18:1 22:1 24:1 
-0.98451119884755689 4:1 8:1 9:1 11:1 12:1 14:1 16:1 19:1 22:1 24:1 26:1 
-4 1:1 3:1 6:1 8:1 18:1 20:1 22:1 24:1 25:1 26:1 
-1.1625326578241908 7:1 8:1 12:1 18:1 21:1 22:1 25:1 26:1 
-0.5684370972966033 6:1 8:1 18:1 20:1 23:1 25:1 26:1 
-0.59081709755870271 4:1 19:1 22:1 24:1 25:1 
-0.43110650237076553 4:1 8:1 14:1 17:1 22:1 24:1 25:1 
-3.2736574445868358 8:1 10:1 13:1 14:1 16:1 17:1 22:1 23:1 24:1 25:1 26:1 
-4 8:1 10:1 11:1 12:1 14:1 18:1 19:1 20:1 22:1 24:1 25:1 26:1 
-3.9446155085674941 7:1 8:1 14:1 15:1 18:1 19:1 20:1 22:1 25:1 
-2.6584460665024787 8:1 16:1 17:1 18:1 19:1 20:1 21:1 24:1 25:1 26:1 
